<?xml version="1.0"?>
<opencv_storage>
<cascade>
  <stageType>BOOST</stageType>
  <featureType>HAAR</featureType>
  <height>25</height>
  <width>25</width>
  <stageParams>
    <boostType>GAB</boostType>
    <minHitRate>9.9500000476837158e-01</minHitRate>
    <maxFalseAlarm>5.0000000000000000e-01</maxFalseAlarm>
    <weightTrimRate>9.4999999999999996e-01</weightTrimRate>
    <maxDepth>1</maxDepth>
    <maxWeakCount>100</maxWeakCount></stageParams>
  <featureParams>
    <maxCatCount>0</maxCatCount>
    <featSize>1</featSize>
    <mode>ALL</mode></featureParams>
  <stageNum>13</stageNum>
  <stages>
    <!-- stage 0 -->
    <_>
      <maxWeakCount>6</maxWeakCount>
      <stageThreshold>-1.8821066617965698e+00</stageThreshold>
      <weakClassifiers>
        <_>
          <internalNodes>
            0 -1 91 2.2079436108469963e-02</internalNodes>
          <leafValues>
            -9.1887086629867554e-01 6.2886130809783936e-01</leafValues></_>
        <_>
          <internalNodes>
            0 -1 53 -2.3525450378656387e-02</internalNodes>
          <leafValues>
            5.9276294708251953e-01 -8.1462556123733521e-01</leafValues></_>
        <_>
          <internalNodes>
            0 -1 35 4.3173748999834061e-03</internalNodes>
          <leafValues>
            -5.1433658599853516e-01 7.1173566579818726e-01</leafValues></_>
        <_>
          <internalNodes>
            0 -1 14 4.4364392757415771e-02</internalNodes>
          <leafValues>
            -4.3269547820091248e-01 6.6133767366409302e-01</leafValues></_>
        <_>
          <internalNodes>
            0 -1 28 2.2401288151741028e-02</internalNodes>
          <leafValues>
            -6.8639492988586426e-01 3.6177778244018555e-01</leafValues></_>
        <_>
          <internalNodes>
            0 -1 140 7.8022191300988197e-03</internalNodes>
          <leafValues>
            -3.9101451635360718e-01 4.3664404749870300e-01</leafValues></_></weakClassifiers></_>
    <!-- stage 1 -->
    <_>
      <maxWeakCount>7</maxWeakCount>
      <stageThreshold>-1.9483134746551514e+00</stageThreshold>
      <weakClassifiers>
        <_>
          <internalNodes>
            0 -1 51 -8.7091617286205292e-02</internalNodes>
          <leafValues>
            5.0596749782562256e-01 -7.2918373346328735e-01</leafValues></_>
        <_>
          <internalNodes>
            0 -1 13 2.8570327162742615e-01</internalNodes>
          <leafValues>
            -4.8950794339179993e-01 7.5509107112884521e-01</leafValues></_>
        <_>
          <internalNodes>
            0 -1 63 3.4428216516971588e-02</internalNodes>
          <leafValues>
            -6.7470681667327881e-01 4.1252535581588745e-01</leafValues></_>
        <_>
          <internalNodes>
            0 -1 107 -1.1784580237872433e-05</internalNodes>
          <leafValues>
            3.1585887074470520e-01 -7.5900548696517944e-01</leafValues></_>
        <_>
          <internalNodes>
            0 -1 115 4.3025137856602669e-03</internalNodes>
          <leafValues>
            -5.7849967479705811e-01 2.7507776021957397e-01</leafValues></_>
        <_>
          <internalNodes>
            0 -1 42 -1.0158207733184099e-03</internalNodes>
          <leafValues>
            -8.3384126424789429e-01 1.5518529713153839e-01</leafValues></_>
        <_>
          <internalNodes>
            0 -1 41 8.8472454808652401e-04</internalNodes>
          <leafValues>
            1.7836727201938629e-01 -8.1340473890304565e-01</leafValues></_></weakClassifiers></_>
    <!-- stage 2 -->
    <_>
      <maxWeakCount>9</maxWeakCount>
      <stageThreshold>-1.8849486112594604e+00</stageThreshold>
      <weakClassifiers>
        <_>
          <internalNodes>
            0 -1 38 1.3475284911692142e-02</internalNodes>
          <leafValues>
            -7.0312887430191040e-01 4.7547015547752380e-01</leafValues></_>
        <_>
          <internalNodes>
            0 -1 39 5.2123904228210449e-02</internalNodes>
          <leafValues>
            -7.0247590541839600e-01 3.2398125529289246e-01</leafValues></_>
        <_>
          <internalNodes>
            0 -1 4 5.6131869554519653e-02</internalNodes>
          <leafValues>
            -4.5195472240447998e-01 6.2016910314559937e-01</leafValues></_>
        <_>
          <internalNodes>
            0 -1 94 1.8933285027742386e-02</internalNodes>
          <leafValues>
            -5.3323525190353394e-01 4.5428627729415894e-01</leafValues></_>
        <_>
          <internalNodes>
            0 -1 163 2.2989785065874457e-05</internalNodes>
          <leafValues>
            -4.0810000896453857e-01 4.3742930889129639e-01</leafValues></_>
        <_>
          <internalNodes>
            0 -1 90 2.2878852178109810e-05</internalNodes>
          <leafValues>
            -4.8131701350212097e-01 2.9178276658058167e-01</leafValues></_>
        <_>
          <internalNodes>
            0 -1 37 5.5636754259467125e-03</internalNodes>
          <leafValues>
            -7.9362809658050537e-01 1.6975797712802887e-01</leafValues></_>
        <_>
          <internalNodes>
            0 -1 159 -2.5606826966395602e-05</internalNodes>
          <leafValues>
            2.8852602839469910e-01 -4.5527508854866028e-01</leafValues></_>
        <_>
          <internalNodes>
            0 -1 160 -1.1357588227838278e-03</internalNodes>
          <leafValues>
            -8.1279039382934570e-01 1.6387934982776642e-01</leafValues></_></weakClassifiers></_>
    <!-- stage 3 -->
    <_>
      <maxWeakCount>10</maxWeakCount>
      <stageThreshold>-2.0975010395050049e+00</stageThreshold>
      <weakClassifiers>
        <_>
          <internalNodes>
            0 -1 83 -7.4002593755722046e-03</internalNodes>
          <leafValues>
            2.9772675037384033e-01 -7.4384540319442749e-01</leafValues></_>
        <_>
          <internalNodes>
            0 -1 171 -1.9008304923772812e-02</internalNodes>
          <leafValues>
            3.3596789836883545e-01 -7.1115458011627197e-01</leafValues></_>
        <_>
          <internalNodes>
            0 -1 105 4.3514813296496868e-03</internalNodes>
          <leafValues>
            -6.6682541370391846e-01 2.6196226477622986e-01</leafValues></_>
        <_>
          <internalNodes>
            0 -1 2 3.4995496273040771e-01</internalNodes>
          <leafValues>
            -2.6678627729415894e-01 6.7711639404296875e-01</leafValues></_>
        <_>
          <internalNodes>
            0 -1 61 -7.2531532496213913e-03</internalNodes>
          <leafValues>
            3.2491740584373474e-01 -5.8274716138839722e-01</leafValues></_>
        <_>
          <internalNodes>
            0 -1 17 3.2295241951942444e-02</internalNodes>
          <leafValues>
            -3.2275989651679993e-01 5.1937979459762573e-01</leafValues></_>
        <_>
          <internalNodes>
            0 -1 20 -1.7575991805642843e-03</internalNodes>
          <leafValues>
            2.4759797751903534e-01 -5.2119421958923340e-01</leafValues></_>
        <_>
          <internalNodes>
            0 -1 68 2.0418423227965832e-03</internalNodes>
          <leafValues>
            -5.0534522533416748e-01 2.4444802105426788e-01</leafValues></_>
        <_>
          <internalNodes>
            0 -1 109 -2.4575652787461877e-05</internalNodes>
          <leafValues>
            3.4253558516502380e-01 -3.4561568498611450e-01</leafValues></_>
        <_>
          <internalNodes>
            0 -1 181 2.2172032913658768e-05</internalNodes>
          <leafValues>
            -6.5015792846679688e-01 1.6792662441730499e-01</leafValues></_></weakClassifiers></_>
    <!-- stage 4 -->
    <_>
      <maxWeakCount>15</maxWeakCount>
      <stageThreshold>-2.2891511917114258e+00</stageThreshold>
      <weakClassifiers>
        <_>
          <internalNodes>
            0 -1 38 1.5577650628983974e-02</internalNodes>
          <leafValues>
            -6.6335123777389526e-01 4.0568083524703979e-01</leafValues></_>
        <_>
          <internalNodes>
            0 -1 11 8.9794442057609558e-02</internalNodes>
          <leafValues>
            -4.0996709465980530e-01 5.3215789794921875e-01</leafValues></_>
        <_>
          <internalNodes>
            0 -1 125 -1.3281522318720818e-02</internalNodes>
          <leafValues>
            3.2077154517173767e-01 -5.8953595161437988e-01</leafValues></_>
        <_>
          <internalNodes>
            0 -1 99 -9.3085998669266701e-03</internalNodes>
          <leafValues>
            6.8103766441345215e-01 -2.7104485034942627e-01</leafValues></_>
        <_>
          <internalNodes>
            0 -1 139 -3.5413238219916821e-03</internalNodes>
          <leafValues>
            2.4816115200519562e-01 -6.6541755199432373e-01</leafValues></_>
        <_>
          <internalNodes>
            0 -1 8 6.0260105878114700e-02</internalNodes>
          <leafValues>
            -2.3641490936279297e-01 6.7023634910583496e-01</leafValues></_>
        <_>
          <internalNodes>
            0 -1 184 -1.0896503226831555e-05</internalNodes>
          <leafValues>
            3.4740364551544189e-01 -4.1540274024009705e-01</leafValues></_>
        <_>
          <internalNodes>
            0 -1 183 8.4015529137104750e-04</internalNodes>
          <leafValues>
            2.0602481067180634e-01 -6.7280858755111694e-01</leafValues></_>
        <_>
          <internalNodes>
            0 -1 40 -9.1572692326735705e-05</internalNodes>
          <leafValues>
            1.1423735320568085e-01 -7.0982307195663452e-01</leafValues></_>
        <_>
          <internalNodes>
            0 -1 154 1.2050486402586102e-03</internalNodes>
          <leafValues>
            1.4360357820987701e-01 -6.8040823936462402e-01</leafValues></_>
        <_>
          <internalNodes>
            0 -1 67 6.4447545446455479e-04</internalNodes>
          <leafValues>
            1.6968066990375519e-01 -5.4784929752349854e-01</leafValues></_>
        <_>
          <internalNodes>
            0 -1 150 1.2034750543534756e-03</internalNodes>
          <leafValues>
            1.4099596440792084e-01 -6.7622262239456177e-01</leafValues></_>
        <_>
          <internalNodes>
            0 -1 31 -3.5925347357988358e-02</internalNodes>
          <leafValues>
            -6.6552251577377319e-01 1.2854933738708496e-01</leafValues></_>
        <_>
          <internalNodes>
            0 -1 130 3.5888617858290672e-03</internalNodes>
          <leafValues>
            -2.7516657114028931e-01 3.3602893352508545e-01</leafValues></_>
        <_>
          <internalNodes>
            0 -1 136 -1.1654498521238565e-03</internalNodes>
          <leafValues>
            -6.6576778888702393e-01 1.4147514104843140e-01</leafValues></_></weakClassifiers></_>
    <!-- stage 5 -->
    <_>
      <maxWeakCount>14</maxWeakCount>
      <stageThreshold>-2.2494831085205078e+00</stageThreshold>
      <weakClassifiers>
        <_>
          <internalNodes>
            0 -1 173 4.7232187353074551e-03</internalNodes>
          <leafValues>
            -6.7170125246047974e-01 1.8821053206920624e-01</leafValues></_>
        <_>
          <internalNodes>
            0 -1 176 -9.9758855998516083e-02</internalNodes>
          <leafValues>
            5.9228318929672241e-01 -3.6748284101486206e-01</leafValues></_>
        <_>
          <internalNodes>
            0 -1 157 8.1469751894474030e-03</internalNodes>
          <leafValues>
            -5.5163013935089111e-01 3.0197262763977051e-01</leafValues></_>
        <_>
          <internalNodes>
            0 -1 59 -2.0045488781761378e-05</internalNodes>
          <leafValues>
            3.0072852969169617e-01 -5.0329095125198364e-01</leafValues></_>
        <_>
          <internalNodes>
            0 -1 55 -4.8680463805794716e-05</internalNodes>
          <leafValues>
            2.5897884368896484e-01 -6.1406379938125610e-01</leafValues></_>
        <_>
          <internalNodes>
            0 -1 45 1.1731081176549196e-03</internalNodes>
          <leafValues>
            1.7036983370780945e-01 -7.9991197586059570e-01</leafValues></_>
        <_>
          <internalNodes>
            0 -1 100 -1.3136496767401695e-02</internalNodes>
          <leafValues>
            5.9177631139755249e-01 -2.6771128177642822e-01</leafValues></_>
        <_>
          <internalNodes>
            0 -1 102 8.2327090203762054e-03</internalNodes>
          <leafValues>
            -5.2937352657318115e-01 2.5126290321350098e-01</leafValues></_>
        <_>
          <internalNodes>
            0 -1 62 -4.3811902403831482e-02</internalNodes>
          <leafValues>
            2.2494229674339294e-01 -5.7443761825561523e-01</leafValues></_>
        <_>
          <internalNodes>
            0 -1 1 8.7216824293136597e-02</internalNodes>
          <leafValues>
            -2.2732570767402649e-01 5.5575841665267944e-01</leafValues></_>
        <_>
          <internalNodes>
            0 -1 175 2.3263146431418136e-05</internalNodes>
          <leafValues>
            -3.3043807744979858e-01 2.9988151788711548e-01</leafValues></_>
        <_>
          <internalNodes>
            0 -1 179 -2.7168418455403298e-05</internalNodes>
          <leafValues>
            2.1445985138416290e-01 -4.5869639515876770e-01</leafValues></_>
        <_>
          <internalNodes>
            0 -1 89 -1.2938985601067543e-03</internalNodes>
          <leafValues>
            -7.6750415563583374e-01 1.2360031902790070e-01</leafValues></_>
        <_>
          <internalNodes>
            0 -1 195 -1.0834771674126387e-03</internalNodes>
          <leafValues>
            -7.4230796098709106e-01 9.4999827444553375e-02</leafValues></_></weakClassifiers></_>
    <!-- stage 6 -->
    <_>
      <maxWeakCount>15</maxWeakCount>
      <stageThreshold>-2.2311878204345703e+00</stageThreshold>
      <weakClassifiers>
        <_>
          <internalNodes>
            0 -1 57 4.9814619123935699e-03</internalNodes>
          <leafValues>
            -6.9399464130401611e-01 1.8198962509632111e-01</leafValues></_>
        <_>
          <internalNodes>
            0 -1 126 3.3503384329378605e-03</internalNodes>
          <leafValues>
            -5.4034572839736938e-01 2.8119903802871704e-01</leafValues></_>
        <_>
          <internalNodes>
            0 -1 27 3.6262862384319305e-02</internalNodes>
          <leafValues>
            -3.0146273970603943e-01 5.3277158737182617e-01</leafValues></_>
        <_>
          <internalNodes>
            0 -1 97 -2.5046716473298147e-05</internalNodes>
          <leafValues>
            2.9239079356193542e-01 -4.8239058256149292e-01</leafValues></_>
        <_>
          <internalNodes>
            0 -1 16 -8.4427203983068466e-03</internalNodes>
          <leafValues>
            3.1021592020988464e-01 -4.5098227262496948e-01</leafValues></_>
        <_>
          <internalNodes>
            0 -1 137 -8.7099149823188782e-03</internalNodes>
          <leafValues>
            1.7968177795410156e-01 -6.3230693340301514e-01</leafValues></_>
        <_>
          <internalNodes>
            0 -1 192 -1.0695191122067627e-05</internalNodes>
          <leafValues>
            2.3823569715023041e-01 -4.5890927314758301e-01</leafValues></_>
        <_>
          <internalNodes>
            0 -1 198 8.5632369155064225e-04</internalNodes>
          <leafValues>
            1.4369226992130280e-01 -7.2016316652297974e-01</leafValues></_>
        <_>
          <internalNodes>
            0 -1 119 -5.8250878937542439e-03</internalNodes>
          <leafValues>
            5.1922923326492310e-01 -2.2666072845458984e-01</leafValues></_>
        <_>
          <internalNodes>
            0 -1 78 1.6910689882934093e-03</internalNodes>
          <leafValues>
            -5.6703084707260132e-01 2.1608501672744751e-01</leafValues></_>
        <_>
          <internalNodes>
            0 -1 104 2.2631345927948132e-05</internalNodes>
          <leafValues>
            -4.7208365797996521e-01 1.8125608563423157e-01</leafValues></_>
        <_>
          <internalNodes>
            0 -1 3 1.1739349924027920e-02</internalNodes>
          <leafValues>
            -4.0784785151481628e-01 2.5136846303939819e-01</leafValues></_>
        <_>
          <internalNodes>
            0 -1 191 1.2052117381244898e-03</internalNodes>
          <leafValues>
            1.2068951874971390e-01 -7.1170568466186523e-01</leafValues></_>
        <_>
          <internalNodes>
            0 -1 151 -2.1804242860525846e-03</internalNodes>
          <leafValues>
            -6.2751591205596924e-01 1.1960250884294510e-01</leafValues></_>
        <_>
          <internalNodes>
            0 -1 141 2.2867273539304733e-02</internalNodes>
          <leafValues>
            1.6303890943527222e-01 -4.7110238671302795e-01</leafValues></_></weakClassifiers></_>
    <!-- stage 7 -->
    <_>
      <maxWeakCount>17</maxWeakCount>
      <stageThreshold>-2.0832514762878418e+00</stageThreshold>
      <weakClassifiers>
        <_>
          <internalNodes>
            0 -1 34 4.4063113629817963e-02</internalNodes>
          <leafValues>
            -6.6675633192062378e-01 1.4987754821777344e-01</leafValues></_>
        <_>
          <internalNodes>
            0 -1 12 3.3477848768234253e-01</internalNodes>
          <leafValues>
            -3.6856728792190552e-01 5.2098399400711060e-01</leafValues></_>
        <_>
          <internalNodes>
            0 -1 166 -9.5034763216972351e-03</internalNodes>
          <leafValues>
            2.4240688979625702e-01 -6.8634277582168579e-01</leafValues></_>
        <_>
          <internalNodes>
            0 -1 118 2.7246358804404736e-03</internalNodes>
          <leafValues>
            -3.4928855299949646e-01 4.1619440913200378e-01</leafValues></_>
        <_>
          <internalNodes>
            0 -1 114 3.0431683626375161e-05</internalNodes>
          <leafValues>
            -5.7789081335067749e-01 1.8013919889926910e-01</leafValues></_>
        <_>
          <internalNodes>
            0 -1 44 2.7101388695882633e-05</internalNodes>
          <leafValues>
            -4.3804943561553955e-01 2.9158097505569458e-01</leafValues></_>
        <_>
          <internalNodes>
            0 -1 124 9.5599814085289836e-04</internalNodes>
          <leafValues>
            1.1729273200035095e-01 -7.1296572685241699e-01</leafValues></_>
        <_>
          <internalNodes>
            0 -1 123 -8.5663015488535166e-04</internalNodes>
          <leafValues>
            -6.4758282899856567e-01 1.6013558208942413e-01</leafValues></_>
        <_>
          <internalNodes>
            0 -1 74 -1.7969696782529354e-03</internalNodes>
          <leafValues>
            4.1239663958549500e-01 -2.4466349184513092e-01</leafValues></_>
        <_>
          <internalNodes>
            0 -1 109 -2.3088021407602355e-05</internalNodes>
          <leafValues>
            2.6490646600723267e-01 -3.2939445972442627e-01</leafValues></_>
        <_>
          <internalNodes>
            0 -1 128 2.3411151487380266e-03</internalNodes>
          <leafValues>
            1.1589443683624268e-01 -7.0875829458236694e-01</leafValues></_>
        <_>
          <internalNodes>
            0 -1 180 2.6326939405407757e-05</internalNodes>
          <leafValues>
            -3.6736404895782471e-01 2.0996190607547760e-01</leafValues></_>
        <_>
          <internalNodes>
            0 -1 73 1.0433558374643326e-02</internalNodes>
          <leafValues>
            -5.0257480144500732e-01 1.5284320712089539e-01</leafValues></_>
        <_>
          <internalNodes>
            0 -1 95 -3.0827442969894037e-05</internalNodes>
          <leafValues>
            1.2921009957790375e-01 -5.8380913734436035e-01</leafValues></_>
        <_>
          <internalNodes>
            0 -1 48 -1.0010654805228114e-03</internalNodes>
          <leafValues>
            -5.6389713287353516e-01 1.2635701894760132e-01</leafValues></_>
        <_>
          <internalNodes>
            0 -1 121 3.2799225300550461e-03</internalNodes>
          <leafValues>
            -2.0949506759643555e-01 3.7618786096572876e-01</leafValues></_>
        <_>
          <internalNodes>
            0 -1 120 4.2954050004482269e-03</internalNodes>
          <leafValues>
            -1.3483275473117828e-01 5.6622469425201416e-01</leafValues></_></weakClassifiers></_>
    <!-- stage 8 -->
    <_>
      <maxWeakCount>19</maxWeakCount>
      <stageThreshold>-2.0083127021789551e+00</stageThreshold>
      <weakClassifiers>
        <_>
          <internalNodes>
            0 -1 36 1.1078815907239914e-02</internalNodes>
          <leafValues>
            -7.0377933979034424e-01 8.8565945625305176e-02</leafValues></_>
        <_>
          <internalNodes>
            0 -1 11 6.7507788538932800e-02</internalNodes>
          <leafValues>
            -4.6019268035888672e-01 3.0873602628707886e-01</leafValues></_>
        <_>
          <internalNodes>
            0 -1 98 8.0595714971423149e-03</internalNodes>
          <leafValues>
            -3.1085729598999023e-01 4.8548865318298340e-01</leafValues></_>
        <_>
          <internalNodes>
            0 -1 178 -6.5434025600552559e-03</internalNodes>
          <leafValues>
            3.1153333187103271e-01 -4.5884168148040771e-01</leafValues></_>
        <_>
          <internalNodes>
            0 -1 101 1.4997093239799142e-03</internalNodes>
          <leafValues>
            -5.5027860403060913e-01 2.2315996885299683e-01</leafValues></_>
        <_>
          <internalNodes>
            0 -1 43 -3.4010830859187990e-05</internalNodes>
          <leafValues>
            1.5436983108520508e-01 -6.3622665405273438e-01</leafValues></_>
        <_>
          <internalNodes>
            0 -1 116 2.2713193175150082e-05</internalNodes>
          <leafValues>
            -3.1849390268325806e-01 3.3643564581871033e-01</leafValues></_>
        <_>
          <internalNodes>
            0 -1 47 1.8290121108293533e-02</internalNodes>
          <leafValues>
            8.2912892103195190e-02 -7.0235818624496460e-01</leafValues></_>
        <_>
          <internalNodes>
            0 -1 69 -1.9067347049713135e-02</internalNodes>
          <leafValues>
            -7.5865757465362549e-01 1.0628391802310944e-01</leafValues></_>
        <_>
          <internalNodes>
            0 -1 76 1.2487833388149738e-02</internalNodes>
          <leafValues>
            -6.6034424304962158e-01 9.5102436840534210e-02</leafValues></_>
        <_>
          <internalNodes>
            0 -1 138 2.0214049145579338e-03</internalNodes>
          <leafValues>
            1.2887506186962128e-01 -6.3829439878463745e-01</leafValues></_>
        <_>
          <internalNodes>
            0 -1 66 -4.9505919218063354e-02</internalNodes>
          <leafValues>
            5.7921266555786133e-01 -1.4697809517383575e-01</leafValues></_>
        <_>
          <internalNodes>
            0 -1 197 7.4385007610544562e-04</internalNodes>
          <leafValues>
            1.3851912319660187e-01 -6.8666142225265503e-01</leafValues></_>
        <_>
          <internalNodes>
            0 -1 84 2.5952244177460670e-03</internalNodes>
          <leafValues>
            -2.7627044916152954e-01 2.9836508631706238e-01</leafValues></_>
        <_>
          <internalNodes>
            0 -1 197 -8.2234921865165234e-04</internalNodes>
          <leafValues>
            -6.7221796512603760e-01 1.3860288262367249e-01</leafValues></_>
        <_>
          <internalNodes>
            0 -1 0 7.7553883194923401e-02</internalNodes>
          <leafValues>
            -1.6332489252090454e-01 4.7162216901779175e-01</leafValues></_>
        <_>
          <internalNodes>
            0 -1 164 -2.7161910111317411e-05</internalNodes>
          <leafValues>
            2.4770301580429077e-01 -2.8313434123992920e-01</leafValues></_>
        <_>
          <internalNodes>
            0 -1 152 -5.4893651395104825e-05</internalNodes>
          <leafValues>
            2.2239756584167480e-01 -2.9340347647666931e-01</leafValues></_>
        <_>
          <internalNodes>
            0 -1 30 3.7063889205455780e-02</internalNodes>
          <leafValues>
            9.2245116829872131e-02 -6.6073560714721680e-01</leafValues></_></weakClassifiers></_>
    <!-- stage 9 -->
    <_>
      <maxWeakCount>23</maxWeakCount>
      <stageThreshold>-2.0438950061798096e+00</stageThreshold>
      <weakClassifiers>
        <_>
          <internalNodes>
            0 -1 186 1.2113385833799839e-02</internalNodes>
          <leafValues>
            -6.3113892078399658e-01 1.7597950994968414e-01</leafValues></_>
        <_>
          <internalNodes>
            0 -1 168 -6.1816177330911160e-03</internalNodes>
          <leafValues>
            3.6801066994667053e-01 -3.6630654335021973e-01</leafValues></_>
        <_>
          <internalNodes>
            0 -1 188 -6.0949884355068207e-02</internalNodes>
          <leafValues>
            4.9206429719924927e-01 -2.4237465858459473e-01</leafValues></_>
        <_>
          <internalNodes>
            0 -1 52 1.3848312199115753e-02</internalNodes>
          <leafValues>
            -5.5751872062683105e-01 2.0339140295982361e-01</leafValues></_>
        <_>
          <internalNodes>
            0 -1 10 -1.4693235978484154e-02</internalNodes>
          <leafValues>
            2.3260626196861267e-01 -4.4032815098762512e-01</leafValues></_>
        <_>
          <internalNodes>
            0 -1 169 -2.5296212697867304e-05</internalNodes>
          <leafValues>
            1.7030012607574463e-01 -5.8756452798843384e-01</leafValues></_>
        <_>
          <internalNodes>
            0 -1 58 2.3610689822817221e-05</internalNodes>
          <leafValues>
            -4.3590503931045532e-01 1.7296171188354492e-01</leafValues></_>
        <_>
          <internalNodes>
            0 -1 22 2.7938920538872480e-03</internalNodes>
          <leafValues>
            -4.7976970672607422e-01 1.8586744368076324e-01</leafValues></_>
        <_>
          <internalNodes>
            0 -1 54 2.5359682738780975e-02</internalNodes>
          <leafValues>
            -2.2709386050701141e-01 3.5913136601448059e-01</leafValues></_>
        <_>
          <internalNodes>
            0 -1 189 -1.2866862562077586e-05</internalNodes>
          <leafValues>
            2.0384983718395233e-01 -3.9926153421401978e-01</leafValues></_>
        <_>
          <internalNodes>
            0 -1 170 -2.2045989680918865e-05</internalNodes>
          <leafValues>
            1.9633927941322327e-01 -3.6440560221672058e-01</leafValues></_>
        <_>
          <internalNodes>
            0 -1 23 -7.9966295743361115e-04</internalNodes>
          <leafValues>
            -6.0691136121749878e-01 1.2868988513946533e-01</leafValues></_>
        <_>
          <internalNodes>
            0 -1 133 -2.1204235963523388e-03</internalNodes>
          <leafValues>
            3.3482950925827026e-01 -2.1922424435615540e-01</leafValues></_>
        <_>
          <internalNodes>
            0 -1 18 3.4133400768041611e-03</internalNodes>
          <leafValues>
            1.2126830965280533e-01 -7.0812940597534180e-01</leafValues></_>
        <_>
          <internalNodes>
            0 -1 127 2.7913697995245457e-03</internalNodes>
          <leafValues>
            -3.0397838354110718e-01 2.5288739800453186e-01</leafValues></_>
        <_>
          <internalNodes>
            0 -1 131 2.8190251905471087e-03</internalNodes>
          <leafValues>
            8.7809532880783081e-02 -7.6302450895309448e-01</leafValues></_>
        <_>
          <internalNodes>
            0 -1 134 1.8966938368976116e-03</internalNodes>
          <leafValues>
            -1.6546756029129028e-01 4.4063436985015869e-01</leafValues></_>
        <_>
          <internalNodes>
            0 -1 144 -7.5053935870528221e-04</internalNodes>
          <leafValues>
            -5.8429658412933350e-01 1.3326302170753479e-01</leafValues></_>
        <_>
          <internalNodes>
            0 -1 87 3.9462768472731113e-03</internalNodes>
          <leafValues>
            8.0214314162731171e-02 -6.7186743021011353e-01</leafValues></_>
        <_>
          <internalNodes>
            0 -1 50 2.1660104393959045e-02</internalNodes>
          <leafValues>
            -1.5898124873638153e-01 4.3535590171813965e-01</leafValues></_>
        <_>
          <internalNodes>
            0 -1 46 -1.3321094214916229e-02</internalNodes>
          <leafValues>
            -7.3964887857437134e-01 1.0237563401460648e-01</leafValues></_>
        <_>
          <internalNodes>
            0 -1 172 -4.2756907641887665e-03</internalNodes>
          <leafValues>
            4.2205616831779480e-01 -1.6029840707778931e-01</leafValues></_>
        <_>
          <internalNodes>
            0 -1 72 2.4596177972853184e-03</internalNodes>
          <leafValues>
            1.0168703645467758e-01 -6.4868015050888062e-01</leafValues></_></weakClassifiers></_>
    <!-- stage 10 -->
    <_>
      <maxWeakCount>23</maxWeakCount>
      <stageThreshold>-1.9684276580810547e+00</stageThreshold>
      <weakClassifiers>
        <_>
          <internalNodes>
            0 -1 65 1.0632407851517200e-02</internalNodes>
          <leafValues>
            -6.8880498409271240e-01 4.0432345122098923e-02</leafValues></_>
        <_>
          <internalNodes>
            0 -1 19 4.7278024256229401e-02</internalNodes>
          <leafValues>
            -3.6955788731575012e-01 3.6635422706604004e-01</leafValues></_>
        <_>
          <internalNodes>
            0 -1 80 2.7136681601405144e-03</internalNodes>
          <leafValues>
            -3.4033539891242981e-01 3.3258599042892456e-01</leafValues></_>
        <_>
          <internalNodes>
            0 -1 132 2.3591499484609812e-04</internalNodes>
          <leafValues>
            -3.2912039756774902e-01 3.0010747909545898e-01</leafValues></_>
        <_>
          <internalNodes>
            0 -1 11 1.1408938467502594e-01</internalNodes>
          <leafValues>
            -1.4414316415786743e-01 5.1907181739807129e-01</leafValues></_>
        <_>
          <internalNodes>
            0 -1 75 1.6155555844306946e-02</internalNodes>
          <leafValues>
            -6.5297985076904297e-01 1.2577867507934570e-01</leafValues></_>
        <_>
          <internalNodes>
            0 -1 158 -1.1954070068895817e-03</internalNodes>
          <leafValues>
            -5.7773780822753906e-01 1.6854217648506165e-01</leafValues></_>
        <_>
          <internalNodes>
            0 -1 149 2.3015690967440605e-03</internalNodes>
          <leafValues>
            -4.6112632751464844e-01 1.5810027718544006e-01</leafValues></_>
        <_>
          <internalNodes>
            0 -1 190 -1.1392760789021850e-03</internalNodes>
          <leafValues>
            -7.5902420282363892e-01 9.5693051815032959e-02</leafValues></_>
        <_>
          <internalNodes>
            0 -1 77 -2.9071165045024827e-05</internalNodes>
          <leafValues>
            1.6801001131534576e-01 -4.1148948669433594e-01</leafValues></_>
        <_>
          <internalNodes>
            0 -1 93 3.2718293368816376e-02</internalNodes>
          <leafValues>
            1.3364106416702271e-01 -5.4294395446777344e-01</leafValues></_>
        <_>
          <internalNodes>
            0 -1 196 7.8464008402079344e-04</internalNodes>
          <leafValues>
            8.9848406612873077e-02 -6.4566987752914429e-01</leafValues></_>
        <_>
          <internalNodes>
            0 -1 148 1.6671859193593264e-03</internalNodes>
          <leafValues>
            -2.2781348228454590e-01 3.6136454343795776e-01</leafValues></_>
        <_>
          <internalNodes>
            0 -1 185 2.9390095733106136e-03</internalNodes>
          <leafValues>
            9.9722266197204590e-02 -6.9490313529968262e-01</leafValues></_>
        <_>
          <internalNodes>
            0 -1 71 -6.4310813322663307e-03</internalNodes>
          <leafValues>
            -7.5198626518249512e-01 6.9715112447738647e-02</leafValues></_>
        <_>
          <internalNodes>
            0 -1 110 4.3308883905410767e-03</internalNodes>
          <leafValues>
            -1.5399761497974396e-01 4.1127362847328186e-01</leafValues></_>
        <_>
          <internalNodes>
            0 -1 111 5.7529015466570854e-03</internalNodes>
          <leafValues>
            -1.3206304609775543e-01 5.5684012174606323e-01</leafValues></_>
        <_>
          <internalNodes>
            0 -1 103 -1.3787425123155117e-03</internalNodes>
          <leafValues>
            -6.2134933471679688e-01 1.1464403569698334e-01</leafValues></_>
        <_>
          <internalNodes>
            0 -1 112 1.8379259854555130e-03</internalNodes>
          <leafValues>
            -3.7611547112464905e-01 1.4382100105285645e-01</leafValues></_>
        <_>
          <internalNodes>
            0 -1 117 1.0248023085296154e-02</internalNodes>
          <leafValues>
            1.2101909518241882e-01 -4.8197200894355774e-01</leafValues></_>
        <_>
          <internalNodes>
            0 -1 70 -2.4284145183628425e-05</internalNodes>
          <leafValues>
            1.5584269165992737e-01 -3.6850512027740479e-01</leafValues></_>
        <_>
          <internalNodes>
            0 -1 122 2.2433366626501083e-02</internalNodes>
          <leafValues>
            1.2088179588317871e-01 -4.9208995699882507e-01</leafValues></_>
        <_>
          <internalNodes>
            0 -1 6 -1.9465077668428421e-02</internalNodes>
          <leafValues>
            -6.3734114170074463e-01 8.7853565812110901e-02</leafValues></_></weakClassifiers></_>
    <!-- stage 11 -->
    <_>
      <maxWeakCount>25</maxWeakCount>
      <stageThreshold>-1.9543753862380981e+00</stageThreshold>
      <weakClassifiers>
        <_>
          <internalNodes>
            0 -1 29 -5.7691810652613640e-03</internalNodes>
          <leafValues>
            1.3746497035026550e-01 -6.5854150056838989e-01</leafValues></_>
        <_>
          <internalNodes>
            0 -1 167 1.0778149589896202e-02</internalNodes>
          <leafValues>
            -3.7062668800354004e-01 3.2588893175125122e-01</leafValues></_>
        <_>
          <internalNodes>
            0 -1 7 1.8281295895576477e-01</internalNodes>
          <leafValues>
            -2.5800874829292297e-01 4.8776450753211975e-01</leafValues></_>
        <_>
          <internalNodes>
            0 -1 177 3.4272531047463417e-03</internalNodes>
          <leafValues>
            -4.0732726454734802e-01 2.2869825363159180e-01</leafValues></_>
        <_>
          <internalNodes>
            0 -1 129 3.2398884650319815e-04</internalNodes>
          <leafValues>
            -3.9421957731246948e-01 2.3317329585552216e-01</leafValues></_>
        <_>
          <internalNodes>
            0 -1 100 -8.1573370844125748e-03</internalNodes>
          <leafValues>
            3.9512228965759277e-01 -2.2733232378959656e-01</leafValues></_>
        <_>
          <internalNodes>
            0 -1 159 -1.0444630788697395e-05</internalNodes>
          <leafValues>
            1.8894444406032562e-01 -4.4532063603401184e-01</leafValues></_>
        <_>
          <internalNodes>
            0 -1 182 2.0183833839837462e-05</internalNodes>
          <leafValues>
            -4.1522911190986633e-01 1.7628242075443268e-01</leafValues></_>
        <_>
          <internalNodes>
            0 -1 156 -4.5362315140664577e-03</internalNodes>
          <leafValues>
            -8.0002558231353760e-01 9.2373982071876526e-02</leafValues></_>
        <_>
          <internalNodes>
            0 -1 108 -4.4262385927140713e-04</internalNodes>
          <leafValues>
            2.3985621333122253e-01 -2.8306099772453308e-01</leafValues></_>
        <_>
          <internalNodes>
            0 -1 174 -3.1885028874967247e-05</internalNodes>
          <leafValues>
            1.2784321606159210e-01 -4.7147274017333984e-01</leafValues></_>
        <_>
          <internalNodes>
            0 -1 86 3.8771503604948521e-03</internalNodes>
          <leafValues>
            -5.4425388574600220e-01 1.1787760257720947e-01</leafValues></_>
        <_>
          <internalNodes>
            0 -1 96 1.3148132711648941e-02</internalNodes>
          <leafValues>
            6.4924508333206177e-02 -7.1247476339340210e-01</leafValues></_>
        <_>
          <internalNodes>
            0 -1 143 -6.7923858296126127e-04</internalNodes>
          <leafValues>
            -6.6407567262649536e-01 7.6262943446636200e-02</leafValues></_>
        <_>
          <internalNodes>
            0 -1 172 2.8815409168601036e-03</internalNodes>
          <leafValues>
            -1.4577688276767731e-01 4.4523397088050842e-01</leafValues></_>
        <_>
          <internalNodes>
            0 -1 25 1.6132877208292484e-03</internalNodes>
          <leafValues>
            9.8736457526683807e-02 -6.3220137357711792e-01</leafValues></_>
        <_>
          <internalNodes>
            0 -1 85 2.4167583324015141e-03</internalNodes>
          <leafValues>
            -2.6339733600616455e-01 2.2222921252250671e-01</leafValues></_>
        <_>
          <internalNodes>
            0 -1 33 -4.1440501809120178e-02</internalNodes>
          <leafValues>
            4.1814455389976501e-01 -1.3449679315090179e-01</leafValues></_>
        <_>
          <internalNodes>
            0 -1 64 -3.3789097797125578e-03</internalNodes>
          <leafValues>
            4.0099984407424927e-01 -1.4185889065265656e-01</leafValues></_>
        <_>
          <internalNodes>
            0 -1 24 -1.4311898266896605e-03</internalNodes>
          <leafValues>
            -6.6319262981414795e-01 9.6113063395023346e-02</leafValues></_>
        <_>
          <internalNodes>
            0 -1 9 -3.4289330244064331e-02</internalNodes>
          <leafValues>
            -5.2903074026107788e-01 9.6894524991512299e-02</leafValues></_>
        <_>
          <internalNodes>
            0 -1 88 2.5211607862729579e-05</internalNodes>
          <leafValues>
            -3.7293466925621033e-01 1.4805370569229126e-01</leafValues></_>
        <_>
          <internalNodes>
            0 -1 32 -1.0868291370570660e-02</internalNodes>
          <leafValues>
            -6.6761517524719238e-01 7.3917813599109650e-02</leafValues></_>
        <_>
          <internalNodes>
            0 -1 56 -4.7614730894565582e-02</internalNodes>
          <leafValues>
            -7.0495098829269409e-01 7.1851693093776703e-02</leafValues></_>
        <_>
          <internalNodes>
            0 -1 15 -2.7613791823387146e-01</internalNodes>
          <leafValues>
            6.3236308097839355e-01 -1.1028572916984558e-01</leafValues></_></weakClassifiers></_>
    <!-- stage 12 -->
    <_>
      <maxWeakCount>24</maxWeakCount>
      <stageThreshold>-1.8343076705932617e+00</stageThreshold>
      <weakClassifiers>
        <_>
          <internalNodes>
            0 -1 106 1.1715119704604149e-02</internalNodes>
          <leafValues>
            -6.2643676996231079e-01 1.2713094055652618e-01</leafValues></_>
        <_>
          <internalNodes>
            0 -1 153 8.2713062874972820e-04</internalNodes>
          <leafValues>
            -4.0916761755943298e-01 2.5780197978019714e-01</leafValues></_>
        <_>
          <internalNodes>
            0 -1 82 1.2617831118404865e-02</internalNodes>
          <leafValues>
            -2.1516354382038116e-01 4.3370029330253601e-01</leafValues></_>
        <_>
          <internalNodes>
            0 -1 187 -7.4039638042449951e-02</internalNodes>
          <leafValues>
            4.8440572619438171e-01 -1.7011173069477081e-01</leafValues></_>
        <_>
          <internalNodes>
            0 -1 79 -2.4048065824899822e-05</internalNodes>
          <leafValues>
            2.5572225451469421e-01 -2.8410577774047852e-01</leafValues></_>
        <_>
          <internalNodes>
            0 -1 113 1.3879425823688507e-03</internalNodes>
          <leafValues>
            -4.3312886357307434e-01 1.9792866706848145e-01</leafValues></_>
        <_>
          <internalNodes>
            0 -1 165 1.4811087399721146e-02</internalNodes>
          <leafValues>
            -5.2501410245895386e-01 9.9262475967407227e-02</leafValues></_>
        <_>
          <internalNodes>
            0 -1 81 -1.1850725859403610e-02</internalNodes>
          <leafValues>
            -5.7904136180877686e-01 1.2187650799751282e-01</leafValues></_>
        <_>
          <internalNodes>
            0 -1 146 1.6361647285521030e-03</internalNodes>
          <leafValues>
            -1.9733902812004089e-01 3.4065136313438416e-01</leafValues></_>
        <_>
          <internalNodes>
            0 -1 145 -3.3488497138023376e-05</internalNodes>
          <leafValues>
            9.6720613539218903e-02 -6.1878210306167603e-01</leafValues></_>
        <_>
          <internalNodes>
            0 -1 193 -2.7072480879724026e-03</internalNodes>
          <leafValues>
            -6.3249313831329346e-01 8.9040294289588928e-02</leafValues></_>
        <_>
          <internalNodes>
            0 -1 49 4.0864840149879456e-02</internalNodes>
          <leafValues>
            -1.4320023357868195e-01 4.4891327619552612e-01</leafValues></_>
        <_>
          <internalNodes>
            0 -1 161 3.6621869076043367e-03</internalNodes>
          <leafValues>
            -2.4620705842971802e-01 2.9142385721206665e-01</leafValues></_>
        <_>
          <internalNodes>
            0 -1 142 2.4282445665448904e-03</internalNodes>
          <leafValues>
            9.2434272170066833e-02 -6.7425578832626343e-01</leafValues></_>
        <_>
          <internalNodes>
            0 -1 135 1.5734696062281728e-03</internalNodes>
          <leafValues>
            -2.0663492381572723e-01 3.4092956781387329e-01</leafValues></_>
        <_>
          <internalNodes>
            0 -1 147 1.7048700246959925e-03</internalNodes>
          <leafValues>
            -1.3635919988155365e-01 4.7196513414382935e-01</leafValues></_>
        <_>
          <internalNodes>
            0 -1 194 2.6879296638071537e-03</internalNodes>
          <leafValues>
            1.0622572898864746e-01 -6.4886522293090820e-01</leafValues></_>
        <_>
          <internalNodes>
            0 -1 5 -3.1191140413284302e-02</internalNodes>
          <leafValues>
            -5.9941762685775757e-01 9.1292887926101685e-02</leafValues></_>
        <_>
          <internalNodes>
            0 -1 21 3.7480741739273071e-02</internalNodes>
          <leafValues>
            9.6128188073635101e-02 -5.5298656225204468e-01</leafValues></_>
        <_>
          <internalNodes>
            0 -1 26 1.0866965167224407e-03</internalNodes>
          <leafValues>
            8.9044652879238129e-02 -5.4148542881011963e-01</leafValues></_>
        <_>
          <internalNodes>
            0 -1 60 -3.6232784623280168e-05</internalNodes>
          <leafValues>
            1.2695693969726562e-01 -4.3484339118003845e-01</leafValues></_>
        <_>
          <internalNodes>
            0 -1 92 -3.7091311067342758e-02</internalNodes>
          <leafValues>
            -6.5404015779495239e-01 6.8679280579090118e-02</leafValues></_>
        <_>
          <internalNodes>
            0 -1 162 -7.5940135866403580e-04</internalNodes>
          <leafValues>
            1.9674357771873474e-01 -2.7442178130149841e-01</leafValues></_>
        <_>
          <internalNodes>
            0 -1 155 3.2914045732468367e-03</internalNodes>
          <leafValues>
            7.8898139297962189e-02 -6.8484574556350708e-01</leafValues></_></weakClassifiers></_></stages>
  <features>
    <_>
      <rects>
        <_>
          0 0 6 22 -1.</_>
        <_>
          3 0 3 22 2.</_></rects>
      <tilted>0</tilted></_>
    <_>
      <rects>
        <_>
          0 0 8 21 -1.</_>
        <_>
          4 0 4 21 2.</_></rects>
      <tilted>0</tilted></_>
    <_>
      <rects>
        <_>
          0 0 24 24 -1.</_>
        <_>
          6 0 12 24 2.</_></rects>
      <tilted>0</tilted></_>
    <_>
      <rects>
        <_>
          0 0 22 8 -1.</_>
        <_>
          0 2 22 4 2.</_></rects>
      <tilted>0</tilted></_>
    <_>
      <rects>
        <_>
          0 1 24 3 -1.</_>
        <_>
          6 1 12 3 2.</_></rects>
      <tilted>0</tilted></_>
    <_>
      <rects>
        <_>
          0 3 24 6 -1.</_>
        <_>
          0 3 12 3 2.</_>
        <_>
          12 6 12 3 2.</_></rects>
      <tilted>0</tilted></_>
    <_>
      <rects>
        <_>
          0 4 4 9 -1.</_>
        <_>
          0 7 4 3 3.</_></rects>
      <tilted>0</tilted></_>
    <_>
      <rects>
        <_>
          0 10 24 14 -1.</_>
        <_>
          6 10 12 14 2.</_></rects>
      <tilted>0</tilted></_>
    <_>
      <rects>
        <_>
          0 21 24 3 -1.</_>
        <_>
          6 21 12 3 2.</_></rects>
      <tilted>0</tilted></_>
    <_>
      <rects>
        <_>
          1 0 5 16 -1.</_>
        <_>
          1 4 5 8 2.</_></rects>
      <tilted>0</tilted></_>
    <_>
      <rects>
        <_>
          1 0 10 10 -1.</_>
        <_>
          1 0 5 5 2.</_>
        <_>
          6 5 5 5 2.</_></rects>
      <tilted>0</tilted></_>
    <_>
      <rects>
        <_>
          1 0 24 4 -1.</_>
        <_>
          7 0 12 4 2.</_></rects>
      <tilted>0</tilted></_>
    <_>
      <rects>
        <_>
          1 0 24 24 -1.</_>
        <_>
          7 0 12 24 2.</_></rects>
      <tilted>0</tilted></_>
    <_>
      <rects>
        <_>
          1 0 24 25 -1.</_>
        <_>
          7 0 12 25 2.</_></rects>
      <tilted>0</tilted></_>
    <_>
      <rects>
        <_>
          1 1 24 3 -1.</_>
        <_>
          7 1 12 3 2.</_></rects>
      <tilted>0</tilted></_>
    <_>
      <rects>
        <_>
          1 1 20 23 -1.</_>
        <_>
          11 1 10 23 2.</_></rects>
      <tilted>0</tilted></_>
    <_>
      <rects>
        <_>
          1 2 8 8 -1.</_>
        <_>
          1 2 4 4 2.</_>
        <_>
          5 6 4 4 2.</_></rects>
      <tilted>0</tilted></_>
    <_>
      <rects>
        <_>
          2 6 19 8 -1.</_>
        <_>
          2 8 19 4 2.</_></rects>
      <tilted>0</tilted></_>
    <_>
      <rects>
        <_>
          2 12 5 3 -1.</_>
        <_>
          2 13 5 1 3.</_></rects>
      <tilted>0</tilted></_>
    <_>
      <rects>
        <_>
          2 21 21 3 -1.</_>
        <_>
          9 21 7 3 3.</_></rects>
      <tilted>0</tilted></_>
    <_>
      <rects>
        <_>
          3 0 8 14 -1.</_>
        <_>
          3 0 4 7 2.</_>
        <_>
          7 7 4 7 2.</_></rects>
      <tilted>0</tilted></_>
    <_>
      <rects>
        <_>
          3 1 18 10 -1.</_>
        <_>
          3 1 9 5 2.</_>
        <_>
          12 6 9 5 2.</_></rects>
      <tilted>0</tilted></_>
    <_>
      <rects>
        <_>
          3 10 16 4 -1.</_>
        <_>
          3 11 16 2 2.</_></rects>
      <tilted>0</tilted></_>
    <_>
      <rects>
        <_>
          3 12 2 3 -1.</_>
        <_>
          3 13 2 1 3.</_></rects>
      <tilted>0</tilted></_>
    <_>
      <rects>
        <_>
          3 13 2 3 -1.</_>
        <_>
          3 14 2 1 3.</_></rects>
      <tilted>0</tilted></_>
    <_>
      <rects>
        <_>
          3 13 3 3 -1.</_>
        <_>
          3 14 3 1 3.</_></rects>
      <tilted>0</tilted></_>
    <_>
      <rects>
        <_>
          3 14 3 3 -1.</_>
        <_>
          3 15 3 1 3.</_></rects>
      <tilted>0</tilted></_>
    <_>
      <rects>
        <_>
          3 21 20 3 -1.</_>
        <_>
          8 21 10 3 2.</_></rects>
      <tilted>0</tilted></_>
    <_>
      <rects>
        <_>
          4 5 16 15 -1.</_>
        <_>
          4 10 16 5 3.</_></rects>
      <tilted>0</tilted></_>
    <_>
      <rects>
        <_>
          4 6 4 3 -1.</_>
        <_>
          4 7 4 1 3.</_></rects>
      <tilted>0</tilted></_>
    <_>
      <rects>
        <_>
          4 6 16 12 -1.</_>
        <_>
          4 6 8 6 2.</_>
        <_>
          12 12 8 6 2.</_></rects>
      <tilted>0</tilted></_>
    <_>
      <rects>
        <_>
          4 6 18 12 -1.</_>
        <_>
          4 6 9 6 2.</_>
        <_>
          13 12 9 6 2.</_></rects>
      <tilted>0</tilted></_>
    <_>
      <rects>
        <_>
          4 6 11 16 -1.</_>
        <_>
          4 10 11 8 2.</_></rects>
      <tilted>0</tilted></_>
    <_>
      <rects>
        <_>
          4 6 16 9 -1.</_>
        <_>
          4 9 16 3 3.</_></rects>
      <tilted>0</tilted></_>
    <_>
      <rects>
        <_>
          4 6 17 8 -1.</_>
        <_>
          4 8 17 4 2.</_></rects>
      <tilted>0</tilted></_>
    <_>
      <rects>
        <_>
          4 7 6 2 -1.</_>
        <_>
          4 8 6 1 2.</_></rects>
      <tilted>0</tilted></_>
    <_>
      <rects>
        <_>
          4 7 16 2 -1.</_>
        <_>
          4 8 16 1 2.</_></rects>
      <tilted>0</tilted></_>
    <_>
      <rects>
        <_>
          4 7 16 6 -1.</_>
        <_>
          4 10 16 3 2.</_></rects>
      <tilted>0</tilted></_>
    <_>
      <rects>
        <_>
          4 7 17 2 -1.</_>
        <_>
          4 8 17 1 2.</_></rects>
      <tilted>0</tilted></_>
    <_>
      <rects>
        <_>
          4 7 18 12 -1.</_>
        <_>
          4 10 18 6 2.</_></rects>
      <tilted>0</tilted></_>
    <_>
      <rects>
        <_>
          4 11 16 10 -1.</_>
        <_>
          4 16 16 5 2.</_></rects>
      <tilted>0</tilted></_>
    <_>
      <rects>
        <_>
          4 12 1 3 -1.</_>
        <_>
          4 13 1 1 3.</_></rects>
      <tilted>0</tilted></_>
    <_>
      <rects>
        <_>
          4 12 2 3 -1.</_>
        <_>
          4 13 2 1 3.</_></rects>
      <tilted>0</tilted></_>
    <_>
      <rects>
        <_>
          4 12 7 6 -1.</_>
        <_>
          4 15 7 3 2.</_></rects>
      <tilted>0</tilted></_>
    <_>
      <rects>
        <_>
          4 13 4 1 -1.</_>
        <_>
          5 13 2 1 2.</_></rects>
      <tilted>0</tilted></_>
    <_>
      <rects>
        <_>
          4 13 2 3 -1.</_>
        <_>
          4 14 2 1 3.</_></rects>
      <tilted>0</tilted></_>
    <_>
      <rects>
        <_>
          4 13 16 4 -1.</_>
        <_>
          4 13 8 2 2.</_>
        <_>
          12 15 8 2 2.</_></rects>
      <tilted>0</tilted></_>
    <_>
      <rects>
        <_>
          4 13 16 6 -1.</_>
        <_>
          4 13 8 3 2.</_>
        <_>
          12 16 8 3 2.</_></rects>
      <tilted>0</tilted></_>
    <_>
      <rects>
        <_>
          5 0 4 2 -1.</_>
        <_>
          5 1 4 1 2.</_></rects>
      <tilted>0</tilted></_>
    <_>
      <rects>
        <_>
          5 0 15 12 -1.</_>
        <_>
          5 4 15 4 3.</_></rects>
      <tilted>0</tilted></_>
    <_>
      <rects>
        <_>
          5 2 14 8 -1.</_>
        <_>
          5 4 14 4 2.</_></rects>
      <tilted>0</tilted></_>
    <_>
      <rects>
        <_>
          5 3 15 9 -1.</_>
        <_>
          5 6 15 3 3.</_></rects>
      <tilted>0</tilted></_>
    <_>
      <rects>
        <_>
          5 4 12 6 -1.</_>
        <_>
          8 4 6 6 2.</_></rects>
      <tilted>0</tilted></_>
    <_>
      <rects>
        <_>
          5 4 15 8 -1.</_>
        <_>
          5 6 15 4 2.</_></rects>
      <tilted>0</tilted></_>
    <_>
      <rects>
        <_>
          5 5 15 9 -1.</_>
        <_>
          5 8 15 3 3.</_></rects>
      <tilted>0</tilted></_>
    <_>
      <rects>
        <_>
          5 6 12 12 -1.</_>
        <_>
          5 6 6 6 2.</_>
        <_>
          11 12 6 6 2.</_></rects>
      <tilted>0</tilted></_>
    <_>
      <rects>
        <_>
          5 6 18 12 -1.</_>
        <_>
          5 6 9 6 2.</_>
        <_>
          14 12 9 6 2.</_></rects>
      <tilted>0</tilted></_>
    <_>
      <rects>
        <_>
          5 7 5 2 -1.</_>
        <_>
          5 8 5 1 2.</_></rects>
      <tilted>0</tilted></_>
    <_>
      <rects>
        <_>
          5 13 3 1 -1.</_>
        <_>
          6 13 1 1 3.</_></rects>
      <tilted>0</tilted></_>
    <_>
      <rects>
        <_>
          5 14 1 2 -1.</_>
        <_>
          5 15 1 1 2.</_></rects>
      <tilted>0</tilted></_>
    <_>
      <rects>
        <_>
          5 15 4 2 -1.</_>
        <_>
          5 16 4 1 2.</_></rects>
      <tilted>0</tilted></_>
    <_>
      <rects>
        <_>
          6 2 2 12 -1.</_>
        <_>
          6 6 2 4 3.</_></rects>
      <tilted>0</tilted></_>
    <_>
      <rects>
        <_>
          6 2 19 12 -1.</_>
        <_>
          6 6 19 4 3.</_></rects>
      <tilted>0</tilted></_>
    <_>
      <rects>
        <_>
          6 3 12 7 -1.</_>
        <_>
          10 3 4 7 3.</_></rects>
      <tilted>0</tilted></_>
    <_>
      <rects>
        <_>
          6 5 3 3 -1.</_>
        <_>
          6 6 3 1 3.</_></rects>
      <tilted>0</tilted></_>
    <_>
      <rects>
        <_>
          6 6 4 8 -1.</_>
        <_>
          6 8 4 4 2.</_></rects>
      <tilted>0</tilted></_>
    <_>
      <rects>
        <_>
          6 6 14 8 -1.</_>
        <_>
          6 8 14 4 2.</_></rects>
      <tilted>0</tilted></_>
    <_>
      <rects>
        <_>
          6 8 6 2 -1.</_>
        <_>
          6 8 6 1 2.</_></rects>
      <tilted>1</tilted></_>
    <_>
      <rects>
        <_>
          6 10 12 4 -1.</_>
        <_>
          6 11 12 2 2.</_></rects>
      <tilted>0</tilted></_>
    <_>
      <rects>
        <_>
          6 13 14 6 -1.</_>
        <_>
          6 13 7 3 2.</_>
        <_>
          13 16 7 3 2.</_></rects>
      <tilted>0</tilted></_>
    <_>
      <rects>
        <_>
          6 14 1 2 -1.</_>
        <_>
          6 15 1 1 2.</_></rects>
      <tilted>0</tilted></_>
    <_>
      <rects>
        <_>
          7 0 4 7 -1.</_>
        <_>
          8 0 2 7 2.</_></rects>
      <tilted>0</tilted></_>
    <_>
      <rects>
        <_>
          7 1 3 5 -1.</_>
        <_>
          8 1 1 5 3.</_></rects>
      <tilted>0</tilted></_>
    <_>
      <rects>
        <_>
          7 2 6 11 -1.</_>
        <_>
          10 2 3 11 2.</_></rects>
      <tilted>0</tilted></_>
    <_>
      <rects>
        <_>
          7 6 1 3 -1.</_>
        <_>
          7 7 1 1 3.</_></rects>
      <tilted>0</tilted></_>
    <_>
      <rects>
        <_>
          7 7 12 6 -1.</_>
        <_>
          7 10 12 3 2.</_></rects>
      <tilted>0</tilted></_>
    <_>
      <rects>
        <_>
          7 7 17 6 -1.</_>
        <_>
          7 10 17 3 2.</_></rects>
      <tilted>0</tilted></_>
    <_>
      <rects>
        <_>
          7 9 6 2 -1.</_>
        <_>
          7 9 6 1 2.</_></rects>
      <tilted>1</tilted></_>
    <_>
      <rects>
        <_>
          7 9 7 6 -1.</_>
        <_>
          7 11 7 2 3.</_></rects>
      <tilted>0</tilted></_>
    <_>
      <rects>
        <_>
          7 11 2 2 -1.</_>
        <_>
          7 11 1 1 2.</_>
        <_>
          8 12 1 1 2.</_></rects>
      <tilted>0</tilted></_>
    <_>
      <rects>
        <_>
          7 14 8 3 -1.</_>
        <_>
          7 15 8 1 3.</_></rects>
      <tilted>0</tilted></_>
    <_>
      <rects>
        <_>
          7 15 10 6 -1.</_>
        <_>
          7 15 5 3 2.</_>
        <_>
          12 18 5 3 2.</_></rects>
      <tilted>0</tilted></_>
    <_>
      <rects>
        <_>
          7 15 6 4 -1.</_>
        <_>
          6 16 6 2 2.</_></rects>
      <tilted>1</tilted></_>
    <_>
      <rects>
        <_>
          7 15 11 4 -1.</_>
        <_>
          7 16 11 2 2.</_></rects>
      <tilted>0</tilted></_>
    <_>
      <rects>
        <_>
          7 17 9 3 -1.</_>
        <_>
          7 18 9 1 3.</_></rects>
      <tilted>0</tilted></_>
    <_>
      <rects>
        <_>
          7 20 11 4 -1.</_>
        <_>
          7 21 11 2 2.</_></rects>
      <tilted>0</tilted></_>
    <_>
      <rects>
        <_>
          8 0 4 10 -1.</_>
        <_>
          10 0 2 10 2.</_></rects>
      <tilted>0</tilted></_>
    <_>
      <rects>
        <_>
          8 1 4 5 -1.</_>
        <_>
          9 1 2 5 2.</_></rects>
      <tilted>0</tilted></_>
    <_>
      <rects>
        <_>
          8 2 1 2 -1.</_>
        <_>
          8 2 1 1 2.</_></rects>
      <tilted>1</tilted></_>
    <_>
      <rects>
        <_>
          8 2 3 2 -1.</_>
        <_>
          9 2 1 2 3.</_></rects>
      <tilted>0</tilted></_>
    <_>
      <rects>
        <_>
          8 4 2 1 -1.</_>
        <_>
          9 4 1 1 2.</_></rects>
      <tilted>0</tilted></_>
    <_>
      <rects>
        <_>
          8 4 9 6 -1.</_>
        <_>
          11 4 3 6 3.</_></rects>
      <tilted>0</tilted></_>
    <_>
      <rects>
        <_>
          8 4 11 14 -1.</_>
        <_>
          8 11 11 7 2.</_></rects>
      <tilted>0</tilted></_>
    <_>
      <rects>
        <_>
          8 5 9 16 -1.</_>
        <_>
          8 13 9 8 2.</_></rects>
      <tilted>0</tilted></_>
    <_>
      <rects>
        <_>
          8 6 9 4 -1.</_>
        <_>
          11 6 3 4 3.</_></rects>
      <tilted>0</tilted></_>
    <_>
      <rects>
        <_>
          8 8 3 2 -1.</_>
        <_>
          8 8 3 1 2.</_></rects>
      <tilted>1</tilted></_>
    <_>
      <rects>
        <_>
          8 8 8 8 -1.</_>
        <_>
          8 8 4 4 2.</_>
        <_>
          12 12 4 4 2.</_></rects>
      <tilted>0</tilted></_>
    <_>
      <rects>
        <_>
          8 15 1 2 -1.</_>
        <_>
          8 16 1 1 2.</_></rects>
      <tilted>0</tilted></_>
    <_>
      <rects>
        <_>
          8 16 5 4 -1.</_>
        <_>
          7 17 5 2 2.</_></rects>
      <tilted>1</tilted></_>
    <_>
      <rects>
        <_>
          8 16 8 3 -1.</_>
        <_>
          8 17 8 1 3.</_></rects>
      <tilted>0</tilted></_>
    <_>
      <rects>
        <_>
          8 16 9 3 -1.</_>
        <_>
          8 17 9 1 3.</_></rects>
      <tilted>0</tilted></_>
    <_>
      <rects>
        <_>
          9 0 4 10 -1.</_>
        <_>
          9 0 2 5 2.</_>
        <_>
          11 5 2 5 2.</_></rects>
      <tilted>0</tilted></_>
    <_>
      <rects>
        <_>
          9 0 6 10 -1.</_>
        <_>
          11 0 2 10 3.</_></rects>
      <tilted>0</tilted></_>
    <_>
      <rects>
        <_>
          9 1 3 3 -1.</_>
        <_>
          10 1 1 3 3.</_></rects>
      <tilted>0</tilted></_>
    <_>
      <rects>
        <_>
          9 4 2 1 -1.</_>
        <_>
          10 4 1 1 2.</_></rects>
      <tilted>0</tilted></_>
    <_>
      <rects>
        <_>
          9 4 4 6 -1.</_>
        <_>
          11 4 2 6 2.</_></rects>
      <tilted>0</tilted></_>
    <_>
      <rects>
        <_>
          9 6 4 6 -1.</_>
        <_>
          10 7 2 6 2.</_></rects>
      <tilted>1</tilted></_>
    <_>
      <rects>
        <_>
          9 7 3 4 -1.</_>
        <_>
          9 7 3 2 2.</_></rects>
      <tilted>1</tilted></_>
    <_>
      <rects>
        <_>
          9 13 3 2 -1.</_>
        <_>
          10 13 1 2 3.</_></rects>
      <tilted>0</tilted></_>
    <_>
      <rects>
        <_>
          9 14 2 1 -1.</_>
        <_>
          10 14 1 1 2.</_></rects>
      <tilted>0</tilted></_>
    <_>
      <rects>
        <_>
          9 15 7 3 -1.</_>
        <_>
          9 16 7 1 3.</_></rects>
      <tilted>0</tilted></_>
    <_>
      <rects>
        <_>
          9 16 6 3 -1.</_>
        <_>
          9 17 6 1 3.</_></rects>
      <tilted>0</tilted></_>
    <_>
      <rects>
        <_>
          10 1 2 9 -1.</_>
        <_>
          11 1 1 9 2.</_></rects>
      <tilted>0</tilted></_>
    <_>
      <rects>
        <_>
          10 5 2 5 -1.</_>
        <_>
          11 5 1 5 2.</_></rects>
      <tilted>0</tilted></_>
    <_>
      <rects>
        <_>
          10 8 2 1 -1.</_>
        <_>
          11 8 1 1 2.</_></rects>
      <tilted>0</tilted></_>
    <_>
      <rects>
        <_>
          10 9 9 6 -1.</_>
        <_>
          10 11 9 2 3.</_></rects>
      <tilted>0</tilted></_>
    <_>
      <rects>
        <_>
          10 14 1 2 -1.</_>
        <_>
          10 15 1 1 2.</_></rects>
      <tilted>0</tilted></_>
    <_>
      <rects>
        <_>
          10 14 3 4 -1.</_>
        <_>
          10 14 3 2 2.</_></rects>
      <tilted>1</tilted></_>
    <_>
      <rects>
        <_>
          10 14 7 3 -1.</_>
        <_>
          10 15 7 1 3.</_></rects>
      <tilted>0</tilted></_>
    <_>
      <rects>
        <_>
          10 16 4 3 -1.</_>
        <_>
          10 17 4 1 3.</_></rects>
      <tilted>0</tilted></_>
    <_>
      <rects>
        <_>
          10 16 5 3 -1.</_>
        <_>
          10 17 5 1 3.</_></rects>
      <tilted>0</tilted></_>
    <_>
      <rects>
        <_>
          10 17 7 3 -1.</_>
        <_>
          10 18 7 1 3.</_></rects>
      <tilted>0</tilted></_>
    <_>
      <rects>
        <_>
          11 0 12 5 -1.</_>
        <_>
          14 3 6 5 2.</_></rects>
      <tilted>1</tilted></_>
    <_>
      <rects>
        <_>
          11 1 4 2 -1.</_>
        <_>
          12 1 2 2 2.</_></rects>
      <tilted>0</tilted></_>
    <_>
      <rects>
        <_>
          11 2 4 1 -1.</_>
        <_>
          12 2 2 1 2.</_></rects>
      <tilted>0</tilted></_>
    <_>
      <rects>
        <_>
          11 4 3 6 -1.</_>
        <_>
          9 6 3 2 3.</_></rects>
      <tilted>1</tilted></_>
    <_>
      <rects>
        <_>
          11 6 3 8 -1.</_>
        <_>
          12 6 1 8 3.</_></rects>
      <tilted>0</tilted></_>
    <_>
      <rects>
        <_>
          11 7 3 4 -1.</_>
        <_>
          12 7 1 4 3.</_></rects>
      <tilted>0</tilted></_>
    <_>
      <rects>
        <_>
          11 7 3 3 -1.</_>
        <_>
          11 8 3 1 3.</_></rects>
      <tilted>0</tilted></_>
    <_>
      <rects>
        <_>
          11 8 3 1 -1.</_>
        <_>
          12 8 1 1 3.</_></rects>
      <tilted>0</tilted></_>
    <_>
      <rects>
        <_>
          11 8 3 6 -1.</_>
        <_>
          12 8 1 6 3.</_></rects>
      <tilted>0</tilted></_>
    <_>
      <rects>
        <_>
          11 8 3 3 -1.</_>
        <_>
          11 9 3 1 3.</_></rects>
      <tilted>0</tilted></_>
    <_>
      <rects>
        <_>
          11 13 3 1 -1.</_>
        <_>
          12 13 1 1 3.</_></rects>
      <tilted>0</tilted></_>
    <_>
      <rects>
        <_>
          11 16 2 3 -1.</_>
        <_>
          11 17 2 1 3.</_></rects>
      <tilted>0</tilted></_>
    <_>
      <rects>
        <_>
          11 16 3 3 -1.</_>
        <_>
          11 17 3 1 3.</_></rects>
      <tilted>0</tilted></_>
    <_>
      <rects>
        <_>
          11 17 2 3 -1.</_>
        <_>
          11 18 2 1 3.</_></rects>
      <tilted>0</tilted></_>
    <_>
      <rects>
        <_>
          12 1 4 2 -1.</_>
        <_>
          13 1 2 2 2.</_></rects>
      <tilted>0</tilted></_>
    <_>
      <rects>
        <_>
          12 2 6 8 -1.</_>
        <_>
          15 2 3 8 2.</_></rects>
      <tilted>0</tilted></_>
    <_>
      <rects>
        <_>
          12 3 1 18 -1.</_>
        <_>
          12 12 1 9 2.</_></rects>
      <tilted>0</tilted></_>
    <_>
      <rects>
        <_>
          12 4 4 7 -1.</_>
        <_>
          14 4 2 7 2.</_></rects>
      <tilted>0</tilted></_>
    <_>
      <rects>
        <_>
          12 5 6 10 -1.</_>
        <_>
          12 5 3 5 2.</_>
        <_>
          15 10 3 5 2.</_></rects>
      <tilted>0</tilted></_>
    <_>
      <rects>
        <_>
          12 5 10 9 -1.</_>
        <_>
          9 8 10 3 3.</_></rects>
      <tilted>1</tilted></_>
    <_>
      <rects>
        <_>
          12 7 2 4 -1.</_>
        <_>
          12 8 2 2 2.</_></rects>
      <tilted>0</tilted></_>
    <_>
      <rects>
        <_>
          12 8 1 2 -1.</_>
        <_>
          12 9 1 1 2.</_></rects>
      <tilted>0</tilted></_>
    <_>
      <rects>
        <_>
          12 8 1 3 -1.</_>
        <_>
          12 9 1 1 3.</_></rects>
      <tilted>0</tilted></_>
    <_>
      <rects>
        <_>
          12 12 9 6 -1.</_>
        <_>
          12 15 9 3 2.</_></rects>
      <tilted>0</tilted></_>
    <_>
      <rects>
        <_>
          12 15 3 3 -1.</_>
        <_>
          12 16 3 1 3.</_></rects>
      <tilted>0</tilted></_>
    <_>
      <rects>
        <_>
          12 16 2 3 -1.</_>
        <_>
          12 17 2 1 3.</_></rects>
      <tilted>0</tilted></_>
    <_>
      <rects>
        <_>
          12 17 2 3 -1.</_>
        <_>
          12 18 2 1 3.</_></rects>
      <tilted>0</tilted></_>
    <_>
      <rects>
        <_>
          13 0 10 8 -1.</_>
        <_>
          13 2 10 4 2.</_></rects>
      <tilted>0</tilted></_>
    <_>
      <rects>
        <_>
          13 1 3 2 -1.</_>
        <_>
          14 1 1 2 3.</_></rects>
      <tilted>0</tilted></_>
    <_>
      <rects>
        <_>
          13 5 7 12 -1.</_>
        <_>
          13 11 7 6 2.</_></rects>
      <tilted>0</tilted></_>
    <_>
      <rects>
        <_>
          13 11 4 1 -1.</_>
        <_>
          14 11 2 1 2.</_></rects>
      <tilted>0</tilted></_>
    <_>
      <rects>
        <_>
          13 14 2 3 -1.</_>
        <_>
          13 15 2 1 3.</_></rects>
      <tilted>0</tilted></_>
    <_>
      <rects>
        <_>
          14 0 2 1 -1.</_>
        <_>
          14 0 1 1 2.</_></rects>
      <tilted>1</tilted></_>
    <_>
      <rects>
        <_>
          14 0 3 6 -1.</_>
        <_>
          15 0 1 6 3.</_></rects>
      <tilted>0</tilted></_>
    <_>
      <rects>
        <_>
          14 1 3 6 -1.</_>
        <_>
          15 1 1 6 3.</_></rects>
      <tilted>0</tilted></_>
    <_>
      <rects>
        <_>
          14 2 10 8 -1.</_>
        <_>
          14 2 5 4 2.</_>
        <_>
          19 6 5 4 2.</_></rects>
      <tilted>0</tilted></_>
    <_>
      <rects>
        <_>
          14 3 3 6 -1.</_>
        <_>
          12 5 3 2 3.</_></rects>
      <tilted>1</tilted></_>
    <_>
      <rects>
        <_>
          14 4 2 1 -1.</_>
        <_>
          15 4 1 1 2.</_></rects>
      <tilted>0</tilted></_>
    <_>
      <rects>
        <_>
          14 4 3 1 -1.</_>
        <_>
          15 4 1 1 3.</_></rects>
      <tilted>0</tilted></_>
    <_>
      <rects>
        <_>
          14 7 6 2 -1.</_>
        <_>
          14 8 6 1 2.</_></rects>
      <tilted>0</tilted></_>
    <_>
      <rects>
        <_>
          14 11 4 2 -1.</_>
        <_>
          15 12 2 2 2.</_></rects>
      <tilted>1</tilted></_>
    <_>
      <rects>
        <_>
          14 14 2 1 -1.</_>
        <_>
          15 14 1 1 2.</_></rects>
      <tilted>0</tilted></_>
    <_>
      <rects>
        <_>
          14 14 2 2 -1.</_>
        <_>
          14 14 1 1 2.</_>
        <_>
          15 15 1 1 2.</_></rects>
      <tilted>0</tilted></_>
    <_>
      <rects>
        <_>
          15 1 6 3 -1.</_>
        <_>
          15 1 3 3 2.</_></rects>
      <tilted>1</tilted></_>
    <_>
      <rects>
        <_>
          15 4 6 4 -1.</_>
        <_>
          17 6 2 4 3.</_></rects>
      <tilted>1</tilted></_>
    <_>
      <rects>
        <_>
          15 6 4 8 -1.</_>
        <_>
          15 8 4 4 2.</_></rects>
      <tilted>0</tilted></_>
    <_>
      <rects>
        <_>
          15 6 5 3 -1.</_>
        <_>
          15 7 5 1 3.</_></rects>
      <tilted>0</tilted></_>
    <_>
      <rects>
        <_>
          15 14 4 4 -1.</_>
        <_>
          15 16 4 2 2.</_></rects>
      <tilted>0</tilted></_>
    <_>
      <rects>
        <_>
          16 1 2 1 -1.</_>
        <_>
          17 1 1 1 2.</_></rects>
      <tilted>0</tilted></_>
    <_>
      <rects>
        <_>
          16 3 6 5 -1.</_>
        <_>
          18 5 2 5 3.</_></rects>
      <tilted>1</tilted></_>
    <_>
      <rects>
        <_>
          16 5 3 3 -1.</_>
        <_>
          16 6 3 1 3.</_></rects>
      <tilted>0</tilted></_>
    <_>
      <rects>
        <_>
          16 7 4 2 -1.</_>
        <_>
          16 8 4 1 2.</_></rects>
      <tilted>0</tilted></_>
    <_>
      <rects>
        <_>
          16 9 2 1 -1.</_>
        <_>
          16 9 1 1 2.</_></rects>
      <tilted>1</tilted></_>
    <_>
      <rects>
        <_>
          16 11 2 2 -1.</_>
        <_>
          16 11 1 1 2.</_>
        <_>
          17 12 1 1 2.</_></rects>
      <tilted>0</tilted></_>
    <_>
      <rects>
        <_>
          17 0 8 22 -1.</_>
        <_>
          21 0 4 22 2.</_></rects>
      <tilted>0</tilted></_>
    <_>
      <rects>
        <_>
          17 1 4 10 -1.</_>
        <_>
          17 1 2 5 2.</_>
        <_>
          19 6 2 5 2.</_></rects>
      <tilted>0</tilted></_>
    <_>
      <rects>
        <_>
          17 7 6 8 -1.</_>
        <_>
          17 7 3 4 2.</_>
        <_>
          20 11 3 4 2.</_></rects>
      <tilted>0</tilted></_>
    <_>
      <rects>
        <_>
          17 9 2 1 -1.</_>
        <_>
          17 9 1 1 2.</_></rects>
      <tilted>1</tilted></_>
    <_>
      <rects>
        <_>
          17 13 3 1 -1.</_>
        <_>
          18 13 1 1 3.</_></rects>
      <tilted>0</tilted></_>
    <_>
      <rects>
        <_>
          18 7 1 8 -1.</_>
        <_>
          18 11 1 4 2.</_></rects>
      <tilted>0</tilted></_>
    <_>
      <rects>
        <_>
          18 11 1 4 -1.</_>
        <_>
          18 12 1 2 2.</_></rects>
      <tilted>0</tilted></_>
    <_>
      <rects>
        <_>
          18 13 1 3 -1.</_>
        <_>
          18 14 1 1 3.</_></rects>
      <tilted>0</tilted></_>
    <_>
      <rects>
        <_>
          18 14 1 2 -1.</_>
        <_>
          18 15 1 1 2.</_></rects>
      <tilted>0</tilted></_>
    <_>
      <rects>
        <_>
          18 14 4 4 -1.</_>
        <_>
          18 15 4 2 2.</_></rects>
      <tilted>0</tilted></_>
    <_>
      <rects>
        <_>
          18 15 4 6 -1.</_>
        <_>
          19 16 2 6 2.</_></rects>
      <tilted>1</tilted></_>
    <_>
      <rects>
        <_>
          19 0 6 18 -1.</_>
        <_>
          22 0 3 18 2.</_></rects>
      <tilted>0</tilted></_>
    <_>
      <rects>
        <_>
          19 0 6 21 -1.</_>
        <_>
          22 0 3 21 2.</_></rects>
      <tilted>0</tilted></_>
    <_>
      <rects>
        <_>
          19 9 2 5 -1.</_>
        <_>
          19 9 1 5 2.</_></rects>
      <tilted>1</tilted></_>
    <_>
      <rects>
        <_>
          19 12 2 3 -1.</_>
        <_>
          19 13 2 1 3.</_></rects>
      <tilted>0</tilted></_>
    <_>
      <rects>
        <_>
          19 13 2 3 -1.</_>
        <_>
          19 14 2 1 3.</_></rects>
      <tilted>0</tilted></_>
    <_>
      <rects>
        <_>
          19 14 1 2 -1.</_>
        <_>
          19 15 1 1 2.</_></rects>
      <tilted>0</tilted></_>
    <_>
      <rects>
        <_>
          19 15 3 4 -1.</_>
        <_>
          19 16 3 2 2.</_></rects>
      <tilted>0</tilted></_>
    <_>
      <rects>
        <_>
          19 16 4 3 -1.</_>
        <_>
          19 17 4 1 3.</_></rects>
      <tilted>0</tilted></_>
    <_>
      <rects>
        <_>
          20 11 2 3 -1.</_>
        <_>
          20 12 2 1 3.</_></rects>
      <tilted>0</tilted></_>
    <_>
      <rects>
        <_>
          20 12 1 3 -1.</_>
        <_>
          20 13 1 1 3.</_></rects>
      <tilted>0</tilted></_>
    <_>
      <rects>
        <_>
          20 14 1 3 -1.</_>
        <_>
          20 15 1 1 3.</_></rects>
      <tilted>0</tilted></_>
    <_>
      <rects>
        <_>
          21 11 1 3 -1.</_>
        <_>
          21 12 1 1 3.</_></rects>
      <tilted>0</tilted></_></features></cascade>
</opencv_storage>
